%YAML:1.0
my_nn: !!opencv-ml-ann-mlp
   layer_sizes: !!opencv-matrix
      rows: 1
      cols: 4
      dt: i
      data: [ 2, 10, 15, 1 ]
   activation_function: SIGMOID_SYM
   f_param1: 6.6666666666666663e-01
   f_param2: 1.7159000000000000e+00
   min_val: -9.4999999999999996e-01
   max_val: 9.4999999999999996e-01
   min_val1: -9.7999999999999998e-01
   max_val1: 9.7999999999999998e-01
   training_params:
      train_method: BACKPROP
      dw_scale: 5.0000000745058060e-02
      moment_scale: 5.0000000745058060e-02
      term_criteria: { epsilon:9.9999997473787516e-06, iterations:100 }
   input_scale: [ 3.5173114405660195e+00, -1.8252887158447693e+00,
       3.3964386525379866e+00, -1.7020774438456834e+00 ]
   output_scale: [ 1.0526315789473684e+00, 0. ]
   inv_output_scale: [ 9.4999999999999996e-01, 0. ]
   weights:
      - [ 5.5676345823552069e+01, -1.7617893851780331e+00,
          -6.5105464671317892e-01, 1.5868083408070204e+00,
          -4.2855601094311124e-01, -1.5987872922118771e+00,
          -2.0463313057075266e-01, 1.3372599234583482e+00,
          -4.7004124368172528e-02, 1.5949468582784108e+00,
          -3.3513836609877309e+01, 6.8125647746999574e-01,
          3.6653249731241594e-01, -6.4387544067870661e-01,
          1.8589509323779024e-01, 6.4823865156388327e-01,
          1.9023172100869942e-01, -5.7800559121902761e-01,
          1.4392533558401954e-01, -6.4368025354077096e-01,
          1.7048342223358367e+02, 1.0408503407164359e+01,
          8.9048743297148647e+00, -1.0208309416253435e+01,
          -7.2521319456505520e+00, 1.0242191337547222e+01,
          8.2460285644395395e+00, -9.8912533261751214e+00,
          7.9153520929557066e+00, -1.0225376997186427e+01 ]
      - [ -2.4672331291728749e+01, -3.9885258533179768e-01,
          -1.0682464814406809e+00, -5.6528483202001489e-01,
          4.5610756475193598e-01, 6.4055643304108245e-01,
          1.0258661268079758e-01, 4.6024264487002681e-01,
          -5.0844408079565173e-01, 5.0284238567961859e-01,
          -8.3001725296630890e-01, -5.6107046205932853e-01,
          -5.3845828265686557e-01, 1.7433812738486945e+00,
          5.4855587096210057e-01, -2.4781959618223937e+01,
          1.6945105165353658e+00, -1.1099539108170815e+00,
          -1.0143794196831002e+00, 1.3456141339405601e+00,
          8.4749936459144493e-01, 1.3497720882558324e+00,
          9.2651558572280546e-01, -8.9016087240464825e-01,
          7.9177823283499205e-01, -1.2035514789357280e+00,
          -1.1604000917666690e+00, -1.1982525470781473e+00,
          8.3768751825301968e-01, 9.9476597843736236e-01,
          -1.9807546901461709e+01, 7.0674618371931441e-01,
          -6.7287037901750457e-01, -1.3618615363405540e-01,
          5.1602305515131086e-01, 3.5579141759351557e-01,
          7.8938930204261581e-01, 5.5265901742733747e-01,
          -3.3465786388606922e-01, 5.6113876793202655e-01,
          -4.4921827836107131e-01, -4.0623628318224292e-01,
          -1.7358243377165009e-01, -1.1853870101431704e-01,
          5.3517035363715693e-01, 2.4287038824700449e+01,
          -1.2373488147638398e+00, 1.0231956165638667e+00,
          1.0864651001824874e+00, -9.3654667480659448e-01,
          -9.7732265555073516e-01, -7.9389466560577127e-01,
          -9.9413066158266650e-01, 1.0282565538565782e+00,
          -9.2850760840819446e-01, 9.6596110206434804e-01,
          9.0334418847028985e-01, 9.9716756142186591e-01,
          -9.4878384258595982e-01, -9.7659731821886264e-01,
          1.5016446707238075e+01, 9.9347720622810276e-02,
          2.1826977420827731e-01, -1.7027313762398363e-01,
          -1.1968213029334482e-01, 1.1683645653786402e-01,
          -3.0365296072321962e-01, -1.3343579518849871e-01,
          1.9478852898775136e-02, -3.0657354266153353e-01,
          2.6116694695699144e-01, -5.3715005549648073e-02,
          -2.2330990831906378e-01, 4.6899341122755323e-01,
          -2.7274950372922647e-03, -2.4590398801509309e+01,
          8.3229958923221325e-01, -9.2301298394572351e-01,
          -1.0651262975963907e+00, 8.7247530671208184e-01,
          7.7801771995287972e-01, 5.6874804932319212e-01,
          9.5754348169570724e-01, -1.1265347311739464e+00,
          8.2227689256077929e-01, -9.1213667172323742e-01,
          -8.5355486590598806e-01, -9.9761626668336800e-01,
          8.6809017802764998e-01, 7.7587013871829469e-01,
          -1.7861591126109857e+01, 4.4076133108476336e-02,
          -2.4279595520966932e-01, 3.3943297270665453e-02,
          1.4966564159835513e-01, 2.4588916531364671e-01,
          3.0133709954780274e-01, 7.1423982544779482e-02,
          -1.4865695172100163e-01, 3.3397735265864681e-01,
          -7.0972712568705479e-02, -2.9879436427391404e-01,
          -2.2257975568819355e-01, -3.3000351698466018e-01,
          4.3732827777395411e-01, 2.3300966014335181e+01,
          -7.1469277848305579e-01, 4.8713468099136253e-01,
          5.8719052187528387e-01, -4.4368436123533533e-01,
          -5.3258048816386161e-01, -7.4111545034316095e-01,
          -6.9219138645918710e-01, 6.0903951694841907e-01,
          -7.0151155225135753e-01, 5.6198246192622969e-01,
          3.6325315021937388e-01, 5.0511009479807623e-01,
          -3.3299392797564042e-01, -7.6269254404502074e-01,
          -1.6551979582681199e+01, 1.0181308793316735e-01,
          2.5067794778103747e-01, -1.9932475502989350e-01,
          2.0595997200548936e-02, 2.7503680792576851e-01,
          3.8595494892298098e-02, 1.0994906950192597e-01,
          -3.8065579463696436e-01, 4.1997179880179383e-02,
          1.5264092564688436e-01, -2.4195834870995425e-01,
          -4.0373625425805254e-01, 7.8788368554648325e-01,
          -4.4060232441611787e-02, 2.4405289192791386e+01,
          -1.0436849740898353e+00, 9.9100951811023741e-01,
          1.0580242634121262e+00, -7.4670441236217211e-01,
          -1.0446739191269503e+00, -6.7762231615858748e-01,
          -8.6161976813313135e-01, 1.0223032711341553e+00,
          -9.4998733688661241e-01, 8.2384414816669871e-01,
          1.0224216489444611e+00, 8.6701448912934742e-01,
          -5.7850475037268601e-01, -8.6881525399248760e-01,
          -1.4249615489952937e+01, 1.7931735570181635e+00,
          -1.0717628720463437e+00, -7.0776194733707010e-01,
          1.0630496231731399e+00, 5.4037478679365758e-01,
          1.1399152083772699e+00, 6.9543480249766676e-01,
          -5.1698693044845345e-01, 7.0213258399023037e-01,
          -9.2063781461152572e-01, -9.5153119726782043e-01,
          -6.7722818056151923e-01, 2.3336103007552170e-01,
          9.1443773945167495e-01 ]
      - [ -2.6682240630889154e-01, 8.4244364579294440e-01,
          5.6944622316909044e-01, -1.5509191650712542e-01,
          -8.5402436515967656e-03, 3.6906667155774675e-02,
          1.0820676722261185e-01, -6.9506697441927293e-02,
          -1.0782037130572894e-01, -1.9185486539879149e-01,
          3.0921769269678440e-01, 6.7482876426972788e-02,
          -1.1753704608214038e-01, 5.5830678894583341e-01,
          -1.9153808808643069e-01, 1.5168185369070722e-01 ]
